dog -0.008251 -0.007099 0.036754 -0.054757 0.024213 -0.026707 0.013480 -0.022378 0.007064 0.019788 0.047406 -0.003885 0.014785 -0.001457 -0.020928 -0.022135 -0.011906 -0.025707 -0.018129 0.004206
my -0.021834 -0.017679 0.049600 -0.045292 0.046283 -0.002992 0.026911 -0.020450 -0.004509 -0.000303 0.048805 -0.016616 -0.024694 0.034374 -0.029153 0.007361 -0.020806 -0.018476 -0.015754 -0.016235
the 0.018810 0.025888 0.007473 0.008183 -0.018249 -0.015031 0.010879 -0.006677 -0.015008 -0.008744 -0.022061 0.012113 0.018536 -0.022331 -0.018488 -0.031379 -0.004976 0.007678 -0.028112 0.023619
cat -0.002460 0.027741 -0.027002 0.007867 0.003980 -0.027983 -0.018039 0.000532 -0.010865 0.016367 0.009135 0.021919 0.025413 0.024006 -0.027462 -0.000564 0.016382 0.050746 0.002678 -0.012967
morning -0.015186 0.018489 -0.023312 -0.037373 -0.000175 0.004083 -0.037268 -0.003267 0.022286 0.027990 0.000418 0.060177 0.027914 -0.015658 -0.010486 0.032751 -0.007535 0.001776 0.010469 0.014055
this -0.003045 -0.012517 -0.046533 -0.048257 0.019909 0.026154 -0.034956 0.020105 0.050100 0.045331 0.039296 0.045907 0.012427 -0.001744 0.002794 0.015588 -0.002014 0.004337 0.002533 -0.011399
I 0.032752 -0.007868 -0.050520 0.037066 -0.044975 0.040646 0.044152 -0.031269 0.028066 -0.029378 -0.005984 -0.022419 -0.045057 -0.005164 -0.012986 -0.011014 0.036843 0.024769 -0.009023 0.006516
hates 0.027540 0.013358 -0.007063 0.015178 -0.044762 -0.032865 0.020392 0.000235 -0.023645 -0.004618 -0.006284 0.028682 -0.003157 0.002304 -0.016834 -0.007420 0.010460 0.012952 0.004866 0.016355
loves -0.003157 0.002101 -0.019757 0.005148 -0.007060 0.015010 0.034992 -0.026034 0.019944 0.006874 -0.019620 -0.001163 0.005853 0.033417 0.023542 0.003299 0.015691 -0.011617 0.010141 0.015794
me -0.020334 0.032309 -0.007818 0.006552 -0.001836 0.008226 -0.002795 0.022734 -0.023551 0.004480 -0.003030 0.020304 -0.005288 0.031570 0.004796 0.039875 -0.017535 0.024294 0.018542 0.010306
walked -0.001938 -0.005268 -0.032115 -0.006429 -0.010632 0.000675 0.013619 -0.009122 0.017897 0.010283 -0.033700 -0.035878 -0.014530 -0.005313 -0.006094 -0.010271 0.011132 0.034996 -0.001350 0.000709
was -0.027813 -0.033392 -0.023977 0.026640 -0.011491 0.027237 0.009910 -0.021612 0.026816 0.001732 -0.006589 -0.040952 -0.005451 0.011513 0.037423 0.020930 -0.003540 0.009327 -0.004961 -0.025855
with -0.023097 -0.018778 -0.021281 0.024168 0.031154 0.010505 0.004744 -0.008380 -0.012098 -0.044461 -0.017088 -0.017117 0.011844 0.004835 0.033798 0.055489 0.011110 0.011559 0.012800 -0.042924
<unk> -0.003693 0.001330 -0.012735 -0.004716 -0.001049 0.002074 0.006617 -0.008122 0.006346 0.003488 0.002362 0.003929 0.001430 0.006950 -0.003083 0.007116 0.002562 0.009741 -0.001177 -0.001371
